digraph Tree {
node [shape=box, style="filled, rounded", color="black", fontname="helvetica"] ;
edge [fontname="helvetica"] ;
0 [label="Close <= 6.392\nsquared_error = 0.003\nsamples = 2650\nvalue = -0.003", fillcolor="#f8dcc8"] ;
1 [label="Close <= 1.28\nsquared_error = 0.004\nsamples = 333\nvalue = -0.016", fillcolor="#fae5d7"] ;
0 -> 1 [labeldistance=2.5, labelangle=45, headlabel="True"] ;
2 [label="Close <= 0.895\nsquared_error = 0.004\nsamples = 58\nvalue = -0.032", fillcolor="#fcf0e8"] ;
1 -> 2 ;
3 [label="squared_error = 0.004\nsamples = 34\nvalue = -0.017", fillcolor="#fae6d7"] ;
2 -> 3 ;
4 [label="squared_error = 0.003\nsamples = 24\nvalue = -0.055", fillcolor="#ffffff"] ;
2 -> 4 ;
5 [label="Close <= 5.355\nsquared_error = 0.004\nsamples = 275\nvalue = -0.013", fillcolor="#f9e3d3"] ;
1 -> 5 ;
6 [label="squared_error = 0.004\nsamples = 236\nvalue = -0.009", fillcolor="#f9e1cf"] ;
5 -> 6 ;
7 [label="squared_error = 0.004\nsamples = 39\nvalue = -0.035", fillcolor="#fcf2ea"] ;
5 -> 7 ;
8 [label="Reported EPS <= -1.26\nsquared_error = 0.003\nsamples = 2317\nvalue = -0.001", fillcolor="#f8dbc6"] ;
0 -> 8 [labeldistance=2.5, labelangle=-45, headlabel="False"] ;
9 [label="Reported EPS <= -1.385\nsquared_error = 0.003\nsamples = 6\nvalue = 0.072", fillcolor="#edaa7a"] ;
8 -> 9 ;
10 [label="squared_error = 0.001\nsamples = 4\nvalue = 0.041", fillcolor="#f2bf9a"] ;
9 -> 10 ;
11 [label="squared_error = 0.0\nsamples = 2\nvalue = 0.134", fillcolor="#e58139"] ;
9 -> 11 ;
12 [label="EPS Estimate <= 2.535\nsquared_error = 0.003\nsamples = 2311\nvalue = -0.001", fillcolor="#f8dbc7"] ;
8 -> 12 ;
13 [label="squared_error = 0.003\nsamples = 2297\nvalue = -0.001", fillcolor="#f8dbc7"] ;
12 -> 13 ;
14 [label="squared_error = 0.004\nsamples = 14\nvalue = 0.037", fillcolor="#f2c29f"] ;
12 -> 14 ;
}